svm_type c_svc
kernel_type rbf
gamma 0.001128668171557562
nr_class 3
total_sv 300
rho -0.2711064671291878 -0.1382356455189158 0.24577845438590695
label 1 2 3
nr_sv 100 100 100
SV
72.59191498938043 50.476230702764916 1:1.0 2:1.0 3:1.0 4:1.0 5:1.0 6:1.0 7:1.0 8:1.0 9:1.0 
45.392718710228614 55.500995654081265 10:1.0 11:1.0 12:1.0 13:1.0 14:1.0 15:1.0 16:1.0 17:1.0 18:1.0 19:1.0 
45.392718710228614 45.47425287979079 20:1.0 21:1.0 22:1.0 23:1.0 24:1.0 25:1.0 26:1.0 27:1.0 28:1.0 29:1.0 
45.39297226720921 45.47425287979079 30:1.0 31:1.0 32:1.0 33:1.0 34:1.0 35:1.0 36:1.0 37:1.0 38:1.0 39:1.0 
45.38476945564144 45.4742528797908 40:1.0 41:1.0 42:1.0 43:1.0 44:1.0 45:1.0 46:1.0 47:1.0 48:1.0 49:1.0 
55.38012952734788 45.4742528797908 50:1.0 51:1.0 52:1.0 53:1.0 54:1.0 55:1.0 56:1.0 57:1.0 58:1.0 59:1.0 
55.3951677185649 45.4742528797908 60:1.0 61:1.0 62:1.0 63:1.0 64:1.0 65:1.0 66:1.0 67:1.0 68:1.0 69:1.0 
61.505778167894476 50.49113942298907 70:1.0 71:1.0 72:1.0 73:1.0 74:1.0 75:1.0 76:1.0 77:1.0 78:1.0 
45.40806492281107 45.4742528797908 79:1.0 80:1.0 81:1.0 82:1.0 83:1.0 84:1.0 85:1.0 86:1.0 87:1.0 88:1.0 
55.387122792513885 55.48249967415625 89:1.0 90:1.0 91:1.0 92:1.0 93:1.0 94:1.0 95:1.0 96:1.0 97:1.0 98:1.0 
45.397887739616856 55.48964675988284 99:1.0 100:1.0 101:1.0 102:1.0 103:1.0 104:1.0 105:1.0 106:1.0 107:1.0 108:1.0 
55.41656423550523 45.48292693785298 109:1.0 110:1.0 111:1.0 112:1.0 113:1.0 114:1.0 115:1.0 116:1.0 117:1.0 118:1.0 
45.398089538087056 65.46244972017553 119:1.0 120:1.0 121:1.0 122:1.0 123:1.0 124:1.0 125:1.0 126:1.0 127:1.0 128:1.0 
45.398089538087056 45.495983269787914 129:1.0 130:1.0 131:1.0 132:1.0 133:1.0 134:1.0 135:1.0 136:1.0 137:1.0 138:1.0 
45.397887739616856 55.49325080148906 139:1.0 140:1.0 141:1.0 142:1.0 143:1.0 144:1.0 145:1.0 146:1.0 147:1.0 148:1.0 
45.397887739616856 45.495983269787914 149:1.0 150:1.0 151:1.0 152:1.0 153:1.0 154:1.0 155:1.0 156:1.0 157:1.0 158:1.0 
45.395594982261706 45.49617658951783 159:1.0 160:1.0 161:1.0 162:1.0 163:1.0 164:1.0 165:1.0 166:1.0 167:1.0 168:1.0 
45.395594982261706 45.49617658951783 169:1.0 170:1.0 171:1.0 172:1.0 173:1.0 174:1.0 175:1.0 176:1.0 177:1.0 178:1.0 
45.374285677285236 45.48108911316211 179:1.0 180:1.0 181:1.0 182:1.0 183:1.0 184:1.0 185:1.0 186:1.0 187:1.0 188:1.0 
45.38055679104431 45.47426825843692 189:1.0 190:1.0 191:1.0 192:1.0 193:1.0 194:1.0 195:1.0 196:1.0 197:1.0 198:1.0 
55.375705145585364 55.47513805997393 199:1.0 200:1.0 201:1.0 202:1.0 203:1.0 204:1.0 205:1.0 206:1.0 207:1.0 208:1.0 
45.39271871022862 45.50260141335916 209:1.0 210:1.0 211:1.0 212:1.0 213:1.0 214:1.0 215:1.0 216:1.0 217:1.0 218:1.0 
45.379916427749315 45.48824814251007 219:1.0 220:1.0 221:1.0 222:1.0 223:1.0 224:1.0 225:1.0 226:1.0 227:1.0 228:1.0 
45.41699149920178 45.48292693785306 229:1.0 230:1.0 231:1.0 232:1.0 233:1.0 234:1.0 235:1.0 236:1.0 237:1.0 238:1.0 
45.408064922811086 45.49598326978779 239:1.0 240:1.0 241:1.0 242:1.0 243:1.0 244:1.0 245:1.0 246:1.0 247:1.0 248:1.0 
45.3929722672092 45.49617658951784 249:1.0 250:1.0 251:1.0 252:1.0 253:1.0 254:1.0 255:1.0 256:1.0 257:1.0 258:1.0 
55.3922914465321 45.48452023086318 259:1.0 260:1.0 261:1.0 262:1.0 263:1.0 264:1.0 265:1.0 266:1.0 267:1.0 268:1.0 
55.376958099848984 45.49367806518512 269:1.0 270:1.0 271:1.0 272:1.0 273:1.0 274:1.0 275:1.0 276:1.0 277:1.0 278:1.0 
45.38476945564144 55.48812529168195 279:1.0 280:1.0 281:1.0 282:1.0 283:1.0 284:1.0 285:1.0 286:1.0 287:1.0 288:1.0 
45.39808953808706 55.478698127660905 289:1.0 290:1.0 291:1.0 292:1.0 293:1.0 294:1.0 295:1.0 296:1.0 297:1.0 298:1.0 
100.0 100.0 299:1.0 
100.0 100.0 
100.0 100.0 468:1.0 
100.0 100.0 
100.0 100.0 
100.0 100.0 
100.0 100.0 449:1.0 
100.0 100.0 
100.0 100.0 
100.0 100.0 
100.0 100.0 
100.0 100.0 624:1.0 
100.0 100.0 
100.0 100.0 387:1.0 
100.0 100.0 
100.0 100.0 425:1.0 
100.0 100.0 636:1.0 
100.0 100.0 771:1.0 
100.0 100.0 
100.0 100.0 
100.0 100.0 526:1.0 767:1.0 
100.0 100.0 
100.0 100.0 
100.0 100.0 
100.0 100.0 
100.0 100.0 579:1.0 
100.0 100.0 
100.0 100.0 846:1.0 
100.0 100.0 
100.0 100.0 
100.0 100.0 
100.0 100.0 848:1.0 
100.0 100.0 
100.0 100.0 
100.0 100.0 
100.0 100.0 353:1.0 
100.0 100.0 
100.0 100.0 
100.0 100.0 
100.0 100.0 
100.0 100.0 
100.0 100.0 
100.0 100.0 
100.0 100.0 
100.0 100.0 
100.0 100.0 
100.0 100.0 587:1.0 
100.0 100.0 321:1.0 
100.0 100.0 
100.0 100.0 479:1.0 547:1.0 
100.0 100.0 
100.0 100.0 
100.0 100.0 
100.0 100.0 
100.0 100.0 
100.0 100.0 
100.0 100.0 
100.0 100.0 694:1.0 
100.0 100.0 
100.0 100.0 
100.0 100.0 620:1.0 
100.0 100.0 
100.0 100.0 
100.0 100.0 311:1.0 
100.0 100.0 797:1.0 
100.0 100.0 743:1.0 
100.0 100.0 
100.0 100.0 772:1.0 
100.0 100.0 
100.0 100.0 517:1.0 483:1.0 
-44.22940588105228 45.254562074630364 300:1.0 301:1.0 302:1.0 303:1.0 304:1.0 305:1.0 306:1.0 307:1.0 308:1.0 309:1.0 
-54.21029202743184 45.250343494670076 310:1.0 311:1.0 312:1.0 313:1.0 314:1.0 315:1.0 316:1.0 317:1.0 318:1.0 319:1.0 
-54.223347866891736 45.25446791857342 320:1.0 321:1.0 322:1.0 323:1.0 324:1.0 325:1.0 326:1.0 327:1.0 328:1.0 329:1.0 
-44.21614150212751 45.24902061910277 330:1.0 331:1.0 332:1.0 333:1.0 144:1.0 334:1.0 335:1.0 336:1.0 337:1.0 338:1.0 
-44.21071929112837 45.25406218378915 339:1.0 340:1.0 341:1.0 342:1.0 343:1.0 344:1.0 345:1.0 346:1.0 347:1.0 348:1.0 
-54.20871476854304 45.254562074630364 349:1.0 261:1.0 350:1.0 351:1.0 352:1.0 353:1.0 354:1.0 355:1.0 356:1.0 357:1.0 
-44.22313476729305 45.254562074630364 358:1.0 359:1.0 360:1.0 361:1.0 362:1.0 363:1.0 364:1.0 365:1.0 366:1.0 367:1.0 
-44.210719291128314 45.254562074630364 368:1.0 369:1.0 370:1.0 371:1.0 372:1.0 373:1.0 374:1.0 375:1.0 376:1.0 377:1.0 
-54.20517475655399 45.25034349467007 378:1.0 379:1.0 380:1.0 381:1.0 382:1.0 383:1.0 384:1.0 385:1.0 386:1.0 387:1.0 
-44.210719291128314 45.25034349467007 388:1.0 389:1.0 390:1.0 391:1.0 392:1.0 393:1.0 394:1.0 395:1.0 396:1.0 397:1.0 
-44.22313476729321 45.250343494670076 398:1.0 399:1.0 400:1.0 401:1.0 402:1.0 403:1.0 404:1.0 405:1.0 406:1.0 407:1.0 
-44.22755914905538 45.250343494670076 408:1.0 409:1.0 410:1.0 411:1.0 412:1.0 413:1.0 414:1.0 415:1.0 416:1.0 417:1.0 
-54.20987980530227 45.23276267142993 418:1.0 419:1.0 420:1.0 421:1.0 422:1.0 423:1.0 424:1.0 425:1.0 426:1.0 427:1.0 
-44.20560202025045 45.25627183539157 428:1.0 429:1.0 430:1.0 431:1.0 432:1.0 433:1.0 434:1.0 435:1.0 436:1.0 437:1.0 
-62.90628288664273 78.63333165796692 438:1.0 439:1.0 440:1.0 441:1.0 442:1.0 443:1.0 444:1.0 
-54.205174756554165 45.233881625009396 445:1.0 446:1.0 447:1.0 448:1.0 449:1.0 450:1.0 451:1.0 452:1.0 453:1.0 454:1.0 
-44.2080965760758 45.233881625009396 455:1.0 456:1.0 457:1.0 458:1.0 459:1.0 460:1.0 461:1.0 462:1.0 463:1.0 464:1.0 
-54.22713188535891 45.2338816250094 465:1.0 466:1.0 467:1.0 468:1.0 469:1.0 470:1.0 471:1.0 472:1.0 473:1.0 474:1.0 
-54.19776613632063 55.25413481093406 475:1.0 476:1.0 477:1.0 478:1.0 479:1.0 480:1.0 481:1.0 482:1.0 483:1.0 484:1.0 
-44.21614150212748 45.2338816250094 485:1.0 486:1.0 487:1.0 488:1.0 489:1.0 490:1.0 491:1.0 492:1.0 493:1.0 494:1.0 
-44.21614150212751 45.26314462803134 495:1.0 496:1.0 497:1.0 254:1.0 498:1.0 499:1.0 500:1.0 501:1.0 502:1.0 503:1.0 
-44.22940588105227 55.251768732112765 504:1.0 505:1.0 506:1.0 507:1.0 508:1.0 509:1.0 510:1.0 511:1.0 512:1.0 513:1.0 
-54.218029985133704 65.25002304689795 514:1.0 515:1.0 516:1.0 517:1.0 518:1.0 519:1.0 520:1.0 521:1.0 522:1.0 523:1.0 
-54.20978227430387 45.254562074630364 524:1.0 525:1.0 526:1.0 527:1.0 528:1.0 529:1.0 530:1.0 531:1.0 532:1.0 533:1.0 
-44.22755914905538 45.271123366598964 534:1.0 535:1.0 536:1.0 537:1.0 538:1.0 539:1.0 540:1.0 541:1.0 542:1.0 543:1.0 
-54.19422612433154 45.233881625009396 544:1.0 545:1.0 242:1.0 99:1.0 162:1.0 546:1.0 547:1.0 548:1.0 549:1.0 550:1.0 
-44.21071929112831 45.26185529344256 551:1.0 552:1.0 553:1.0 554:1.0 555:1.0 556:1.0 557:1.0 558:1.0 559:1.0 560:1.0 
-44.21071929112831 45.25456207463037 561:1.0 562:1.0 563:1.0 564:1.0 565:1.0 566:1.0 567:1.0 568:1.0 569:1.0 570:1.0 
-54.20537655502401 45.25446791857344 571:1.0 572:1.0 573:1.0 574:1.0 575:1.0 576:1.0 577:1.0 578:1.0 579:1.0 580:1.0 
-54.205174756553895 55.250596420429126 581:1.0 582:1.0 583:1.0 584:1.0 585:1.0 586:1.0 587:1.0 588:1.0 589:1.0 590:1.0 
-100.0 100.0 591:1.0 16:1.0 592:1.0 
-100.0 100.0 
-100.0 100.0 
-100.0 100.0 
-100.0 100.0 
-100.0 100.0 
-100.0 100.0 
-100.0 100.0 736:1.0 
-100.0 100.0 
-100.0 100.0 
-100.0 100.0 
-100.0 100.0 
-100.0 100.0 
-100.0 100.0 
-100.0 100.0 
-100.0 100.0 
-100.0 100.0 
-100.0 100.0 7:1.0 
-100.0 100.0 
-100.0 100.0 
-100.0 100.0 
-100.0 100.0 75:1.0 
-100.0 100.0 
-100.0 100.0 
-100.0 100.0 114:1.0 
-100.0 100.0 
-100.0 100.0 816:1.0 
-100.0 100.0 1:1.0 758:1.0 
-100.0 100.0 
-100.0 100.0 
-100.0 100.0 743:1.0 195:1.0 
-100.0 100.0 51:1.0 
-100.0 100.0 
-100.0 100.0 
-100.0 100.0 
-100.0 100.0 
-100.0 100.0 
-100.0 100.0 
-100.0 100.0 
-100.0 100.0 772:1.0 
-100.0 100.0 262:1.0 
-100.0 100.0 
-100.0 100.0 
-100.0 100.0 
-100.0 100.0 
-100.0 100.0 
-100.0 100.0 
-100.0 100.0 
-100.0 100.0 
-100.0 100.0 
-100.0 100.0 797:1.0 
-100.0 100.0 
-100.0 100.0 
-100.0 100.0 719:1.0 264:1.0 116:1.0 
-100.0 100.0 
-100.0 100.0 92:1.0 
-100.0 100.0 208:1.0 
-100.0 100.0 
-100.0 100.0 
-100.0 100.0 62:1.0 
-100.0 100.0 
-100.0 100.0 
-100.0 100.0 
-100.0 100.0 
-100.0 100.0 
-100.0 100.0 
-100.0 100.0 
-100.0 100.0 269:1.0 
-100.0 100.0 813:1.0 
-100.0 100.0 
-44.11361753475804 -44.34775640512402 593:1.0 594:1.0 595:1.0 596:1.0 597:1.0 598:1.0 599:1.0 600:1.0 601:1.0 602:1.0 
-44.12260244517548 -44.35334806366769 603:1.0 604:1.0 605:1.0 606:1.0 607:1.0 608:1.0 609:1.0 610:1.0 611:1.0 612:1.0 
-54.11093733265998 -44.340546930306154 613:1.0 614:1.0 615:1.0 616:1.0 617:1.0 618:1.0 619:1.0 620:1.0 621:1.0 622:1.0 
-54.10728102485272 -44.340546930306154 623:1.0 624:1.0 625:1.0 626:1.0 167:1.0 627:1.0 628:1.0 629:1.0 630:1.0 631:1.0 
-87.64246877789454 -88.33719663040795 632:1.0 633:1.0 634:1.0 635:1.0 91:1.0 
-54.10066288128188 -44.340546930306154 636:1.0 637:1.0 638:1.0 639:1.0 640:1.0 641:1.0 642:1.0 643:1.0 644:1.0 645:1.0 
-54.98200438444872 -55.33691401917273 646:1.0 647:1.0 648:1.0 649:1.0 650:1.0 651:1.0 652:1.0 653:1.0 
-44.115667123731384 -44.340546930306154 654:1.0 655:1.0 656:1.0 657:1.0 658:1.0 659:1.0 660:1.0 661:1.0 662:1.0 663:1.0 
-44.1077082885496 -44.33256819173855 664:1.0 665:1.0 666:1.0 667:1.0 221:1.0 668:1.0 669:1.0 670:1.0 671:1.0 672:1.0 
-44.1077082885496 -44.35741573090276 673:1.0 674:1.0 675:1.0 676:1.0 677:1.0 678:1.0 679:1.0 680:1.0 681:1.0 682:1.0 
-44.12943867854673 -44.34741972294595 683:1.0 684:1.0 685:1.0 686:1.0 687:1.0 688:1.0 689:1.0 690:1.0 691:1.0 692:1.0 
-54.10708770512314 -44.3492236397641 693:1.0 694:1.0 695:1.0 696:1.0 697:1.0 698:1.0 699:1.0 700:1.0 701:1.0 702:1.0 
-44.12943867854673 -44.35334806366744 703:1.0 704:1.0 705:1.0 706:1.0 707:1.0 708:1.0 709:1.0 710:1.0 711:1.0 712:1.0 
-44.122602445175396 -54.326537915756326 713:1.0 714:1.0 715:1.0 716:1.0 717:1.0 718:1.0 719:1.0 720:1.0 721:1.0 722:1.0 
-44.118814402826764 -44.35140014854725 723:1.0 724:1.0 725:1.0 726:1.0 727:1.0 728:1.0 729:1.0 730:1.0 731:1.0 732:1.0 
-44.11361753475792 -54.34879637606812 733:1.0 734:1.0 735:1.0 736:1.0 737:1.0 738:1.0 739:1.0 740:1.0 741:1.0 742:1.0 
-54.107281024852995 -54.343295043316175 743:1.0 744:1.0 745:1.0 746:1.0 747:1.0 748:1.0 749:1.0 750:1.0 579:1.0 751:1.0 
-44.120764620484536 -54.334643794069684 752:1.0 753:1.0 754:1.0 755:1.0 756:1.0 757:1.0 526:1.0 758:1.0 759:1.0 760:1.0 
-54.09613907290112 -44.330503569958 761:1.0 762:1.0 763:1.0 764:1.0 765:1.0 766:1.0 767:1.0 768:1.0 769:1.0 770:1.0 
-79.9985448850794 -67.84367472432437 771:1.0 772:1.0 773:1.0 774:1.0 775:1.0 776:1.0 777:1.0 441:1.0 
-44.10751496881968 -44.35825626374119 778:1.0 779:1.0 780:1.0 781:1.0 782:1.0 783:1.0 784:1.0 785:1.0 786:1.0 787:1.0 
-54.11874406377783 -54.34732914142756 788:1.0 789:1.0 790:1.0 791:1.0 792:1.0 793:1.0 794:1.0 795:1.0 796:1.0 797:1.0 
-44.10751496881968 -44.34922363976409 798:1.0 799:1.0 800:1.0 801:1.0 802:1.0 803:1.0 322:1.0 804:1.0 805:1.0 806:1.0 
-44.12943867854673 -54.34920211085192 807:1.0 428:1.0 808:1.0 809:1.0 810:1.0 811:1.0 812:1.0 813:1.0 814:1.0 815:1.0 
-44.12943867854673 -54.369382669631634 816:1.0 817:1.0 818:1.0 819:1.0 820:1.0 821:1.0 822:1.0 823:1.0 824:1.0 825:1.0 
-44.1077082885496 -44.34922363976409 826:1.0 827:1.0 828:1.0 829:1.0 830:1.0 831:1.0 832:1.0 833:1.0 834:1.0 835:1.0 
-44.107514968819686 -44.36980993332812 836:1.0 837:1.0 838:1.0 839:1.0 840:1.0 841:1.0 842:1.0 843:1.0 844:1.0 845:1.0 
-64.1272717072741 -44.36980993332812 846:1.0 847:1.0 848:1.0 849:1.0 850:1.0 851:1.0 852:1.0 853:1.0 854:1.0 855:1.0 
-73.14543667937578 -73.650546974973 856:1.0 857:1.0 858:1.0 859:1.0 860:1.0 861:1.0 
-44.1226024451754 -44.340546930306154 862:1.0 863:1.0 864:1.0 865:1.0 866:1.0 867:1.0 868:1.0 869:1.0 870:1.0 871:1.0 
-44.129438678546535 -44.340546930306154 872:1.0 873:1.0 874:1.0 875:1.0 876:1.0 877:1.0 878:1.0 879:1.0 880:1.0 881:1.0 
-87.66341891429184 -88.33542122137584 882:1.0 883:1.0 884:1.0 885:1.0 886:1.0 
-100.0 -100.0 
-100.0 -100.0 
-100.0 -100.0 
-100.0 -100.0 
-100.0 -100.0 
-100.0 -100.0 
-100.0 -100.0 
-100.0 -100.0 
-100.0 -100.0 
-100.0 -100.0 
-100.0 -100.0 
-100.0 -100.0 285:1.0 
-100.0 -100.0 
-100.0 -100.0 
-100.0 -100.0 
-100.0 -100.0 
-100.0 -100.0 476:1.0 
-100.0 -100.0 
-100.0 -100.0 
-100.0 -100.0 
-100.0 -100.0 
-100.0 -100.0 
-100.0 -100.0 505:1.0 269:1.0 
-100.0 -100.0 
-100.0 -100.0 
-100.0 -100.0 123:1.0 
-100.0 -100.0 
-100.0 -100.0 
-100.0 -100.0 
-100.0 -100.0 
-100.0 -100.0 
-100.0 -100.0 
-100.0 -100.0 
-100.0 -100.0 
-100.0 -100.0 
-100.0 -100.0 
-100.0 -100.0 122:1.0 298:1.0 
-100.0 -100.0 
-100.0 -100.0 
-100.0 -100.0 
-100.0 -100.0 
-100.0 -100.0 14:1.0 
-100.0 -100.0 142:1.0 
-100.0 -100.0 106:1.0 
-100.0 -100.0 
-100.0 -100.0 
-100.0 -100.0 438:1.0 
-100.0 -100.0 
-100.0 -100.0 
-100.0 -100.0 
-100.0 -100.0 
-100.0 -100.0 
-100.0 -100.0 
-100.0 -100.0 
-100.0 -100.0 515:1.0 522:1.0 
-100.0 -100.0 
-100.0 -100.0 
-100.0 -100.0 
-100.0 -100.0 91:1.0 
-100.0 -100.0 
-100.0 -100.0 
-100.0 -100.0 
-100.0 -100.0 
-100.0 -100.0 
-100.0 -100.0 
-100.0 -100.0 
-100.0 -100.0 202:1.0 
-100.0 -100.0 582:1.0 95:1.0 563:1.0 
