svm_type c_svc
kernel_type rbf
gamma 0.0016638935108153079
nr_class 3
total_sv 135
rho 0.8781363418682897 -0.03259666424312316 -0.5325042401862484
label 1 2 3
nr_sv 47 47 41
SV
3.3119785351465634 0.0 7:1.0 8:1.0 16:1.0 67:1.0 81:1.0 150:1.0 187:1.0 210:1.0 217:1.0 221:1.0 276:1.0 278:1.0 309:1.0 360:1.0 391:1.0 422:1.0 444:1.0 448:1.0 490:1.0 513:1.0 
14.1172145558995 0.0 10:1.0 81:1.0 84:1.0 87:1.0 90:1.0 99:1.0 100:1.0 117:1.0 131:1.0 134:1.0 150:1.0 170:1.0 196:1.0 214:1.0 217:1.0 225:1.0 226:1.0 278:1.0 309:1.0 310:1.0 
6.496615101158224 0.0 43:1.0 137:1.0 194:1.0 244:1.0 278:1.0 290:1.0 292:1.0 319:1.0 360:1.0 427:1.0 444:1.0 484:1.0 498:1.0 502:1.0 520:1.0 522:1.0 551:1.0 552:1.0 558:1.0 578:1.0 
8.568574855138712 0.8724325080212717 6:1.0 142:1.0 204:1.0 278:1.0 351:1.0 364:1.0 365:1.0 377:1.0 396:1.0 501:1.0 511:1.0 526:1.0 536:1.0 552:1.0 558:1.0 559:1.0 582:1.0 585:1.0 587:1.0 591:1.0 
14.734097801451348 0.0 63:1.0 71:1.0 87:1.0 108:1.0 137:1.0 151:1.0 185:1.0 186:1.0 211:1.0 212:1.0 268:1.0 278:1.0 290:1.0 309:1.0 315:1.0 316:1.0 377:1.0 379:1.0 389:1.0 408:1.0 
13.363738393854481 0.0 70:1.0 79:1.0 106:1.0 150:1.0 164:1.0 218:1.0 222:1.0 233:1.0 306:1.0 309:1.0 379:1.0 387:1.0 423:1.0 444:1.0 506:1.0 515:1.0 518:1.0 543:1.0 552:1.0 556:1.0 
6.146488354966303 0.0 21:1.0 22:1.0 47:1.0 51:1.0 56:1.0 98:1.0 123:1.0 124:1.0 142:1.0 174:1.0 278:1.0 399:1.0 423:1.0 444:1.0 449:1.0 489:1.0 502:1.0 510:1.0 516:1.0 563:1.0 
8.045354217359744 17.152276323924454 187:1.0 196:1.0 198:1.0 215:1.0 244:1.0 248:1.0 296:1.0 348:1.0 370:1.0 409:1.0 428:1.0 431:1.0 455:1.0 469:1.0 490:1.0 503:1.0 515:1.0 520:1.0 535:1.0 552:1.0 
7.778778763172476 0.0 76:1.0 87:1.0 95:1.0 150:1.0 196:1.0 306:1.0 384:1.0 421:1.0 523:1.0 536:1.0 549:1.0 558:1.0 570:1.0 587:1.0 595:1.0 
0.0 0.7189601655831954 76:1.0 309:1.0 377:1.0 384:1.0 409:1.0 424:1.0 431:1.0 455:1.0 513:1.0 552:1.0 558:1.0 585:1.0 590:1.0 601:1.0 
2.415421774640318 3.5089981168520255 95:1.0 97:1.0 158:1.0 192:1.0 211:1.0 214:1.0 248:1.0 258:1.0 278:1.0 309:1.0 345:1.0 346:1.0 351:1.0 360:1.0 370:1.0 
1.5804659783159654 0.0 87:1.0 131:1.0 171:1.0 249:1.0 309:1.0 313:1.0 370:1.0 409:1.0 444:1.0 502:1.0 515:1.0 558:1.0 570:1.0 
5.668169416531852 0.5304961783916256 95:1.0 135:1.0 316:1.0 340:1.0 370:1.0 515:1.0 552:1.0 570:1.0 574:1.0 578:1.0 585:1.0 590:1.0 
5.296897831641824 0.0 95:1.0 150:1.0 214:1.0 241:1.0 249:1.0 278:1.0 298:1.0 309:1.0 370:1.0 372:1.0 384:1.0 423:1.0 444:1.0 450:1.0 515:1.0 581:1.0 
0.0 4.750931587217005 10:1.0 81:1.0 95:1.0 142:1.0 195:1.0 196:1.0 278:1.0 286:1.0 305:1.0 330:1.0 341:1.0 360:1.0 377:1.0 392:1.0 409:1.0 518:1.0 545:1.0 
17.7457561271743 8.183926401441362 81:1.0 204:1.0 219:1.0 449:1.0 490:1.0 500:1.0 518:1.0 540:1.0 558:1.0 570:1.0 575:1.0 576:1.0 585:1.0 
0.0 4.321523655955063 61:1.0 81:1.0 93:1.0 95:1.0 196:1.0 283:1.0 360:1.0 370:1.0 384:1.0 392:1.0 417:1.0 444:1.0 
16.682215158489075 8.536473451862248 81:1.0 131:1.0 217:1.0 263:1.0 309:1.0 310:1.0 391:1.0 417:1.0 422:1.0 431:1.0 448:1.0 450:1.0 455:1.0 
0.0 15.24313942807601 168:1.0 187:1.0 196:1.0 202:1.0 278:1.0 286:1.0 309:1.0 325:1.0 370:1.0 372:1.0 392:1.0 409:1.0 448:1.0 458:1.0 484:1.0 502:1.0 
0.0 16.44469126476243 93:1.0 95:1.0 207:1.0 211:1.0 279:1.0 290:1.0 291:1.0 309:1.0 340:1.0 341:1.0 360:1.0 502:1.0 513:1.0 515:1.0 
19.40566970718518 30.699850308159327 10:1.0 150:1.0 185:1.0 196:1.0 253:1.0 290:1.0 291:1.0 306:1.0 309:1.0 316:1.0 319:1.0 330:1.0 336:1.0 360:1.0 370:1.0 376:1.0 
0.0 1.2654338045676683 8:1.0 16:1.0 95:1.0 99:1.0 142:1.0 196:1.0 309:1.0 310:1.0 348:1.0 360:1.0 392:1.0 444:1.0 490:1.0 
0.0 8.825652419695297 43:1.0 81:1.0 95:1.0 202:1.0 209:1.0 219:1.0 262:1.0 278:1.0 291:1.0 328:1.0 376:1.0 384:1.0 404:1.0 423:1.0 424:1.0 444:1.0 
0.0 0.237909817440575 95:1.0 99:1.0 219:1.0 249:1.0 278:1.0 286:1.0 310:1.0 394:1.0 444:1.0 466:1.0 468:1.0 471:1.0 517:1.0 523:1.0 527:1.0 
53.34125047258621 16.178852173293194 76:1.0 137:1.0 182:1.0 202:1.0 292:1.0 298:1.0 309:1.0 310:1.0 371:1.0 389:1.0 395:1.0 423:1.0 443:1.0 
58.570945932839386 41.2546181083688 110:1.0 131:1.0 139:1.0 196:1.0 246:1.0 252:1.0 291:1.0 390:1.0 409:1.0 423:1.0 457:1.0 489:1.0 502:1.0 511:1.0 
41.975438081216886 20.688119400050038 10:1.0 77:1.0 87:1.0 127:1.0 142:1.0 187:1.0 246:1.0 249:1.0 268:1.0 306:1.0 309:1.0 319:1.0 341:1.0 
0.0 27.451808802771094 87:1.0 212:1.0 246:1.0 290:1.0 291:1.0 310:1.0 316:1.0 336:1.0 360:1.0 370:1.0 389:1.0 419:1.0 423:1.0 440:1.0 444:1.0 449:1.0 489:1.0 515:1.0 
48.50752490074512 0.0 87:1.0 95:1.0 131:1.0 142:1.0 187:1.0 196:1.0 204:1.0 246:1.0 249:1.0 278:1.0 286:1.0 360:1.0 377:1.0 
21.594578348583227 3.9979432011320646 59:1.0 87:1.0 309:1.0 310:1.0 315:1.0 376:1.0 440:1.0 457:1.0 536:1.0 545:1.0 552:1.0 558:1.0 572:1.0 578:1.0 
1.999059949212572 0.0 81:1.0 87:1.0 150:1.0 196:1.0 213:1.0 306:1.0 376:1.0 377:1.0 404:1.0 444:1.0 502:1.0 
29.062373965678944 3.5752941703029846 79:1.0 87:1.0 158:1.0 187:1.0 196:1.0 213:1.0 278:1.0 310:1.0 360:1.0 376:1.0 423:1.0 444:1.0 457:1.0 
14.045861758038182 30.957557718507378 87:1.0 95:1.0 142:1.0 150:1.0 163:1.0 197:1.0 249:1.0 251:1.0 279:1.0 291:1.0 292:1.0 309:1.0 318:1.0 389:1.0 
10.126420277474137 0.0 81:1.0 95:1.0 131:1.0 150:1.0 196:1.0 213:1.0 252:1.0 316:1.0 364:1.0 384:1.0 
0.0 9.408190857440003 16:1.0 81:1.0 95:1.0 99:1.0 150:1.0 196:1.0 262:1.0 268:1.0 278:1.0 279:1.0 283:1.0 291:1.0 309:1.0 348:1.0 370:1.0 
0.0 9.287579771468945 67:1.0 81:1.0 196:1.0 263:1.0 309:1.0 310:1.0 313:1.0 367:1.0 423:1.0 444:1.0 448:1.0 449:1.0 450:1.0 
18.89743583703719 17.55961426418142 195:1.0 196:1.0 197:1.0 254:1.0 278:1.0 292:1.0 370:1.0 392:1.0 413:1.0 523:1.0 525:1.0 526:1.0 527:1.0 554:1.0 566:1.0 568:1.0 
6.199743949523156 0.0 95:1.0 131:1.0 194:1.0 211:1.0 246:1.0 261:1.0 268:1.0 310:1.0 423:1.0 444:1.0 457:1.0 502:1.0 507:1.0 
14.512470054038356 0.0 10:1.0 87:1.0 137:1.0 155:1.0 196:1.0 246:1.0 278:1.0 283:1.0 306:1.0 309:1.0 367:1.0 418:1.0 423:1.0 457:1.0 476:1.0 490:1.0 515:1.0 517:1.0 518:1.0 
0.0 1.7817097109941207 81:1.0 137:1.0 196:1.0 243:1.0 246:1.0 278:1.0 310:1.0 315:1.0 423:1.0 455:1.0 457:1.0 490:1.0 527:1.0 568:1.0 576:1.0 585:1.0 
0.0 0.5506242151486964 10:1.0 95:1.0 131:1.0 278:1.0 283:1.0 286:1.0 307:1.0 309:1.0 340:1.0 356:1.0 389:1.0 444:1.0 515:1.0 
8.816912217929849 8.775492482325317 43:1.0 202:1.0 249:1.0 306:1.0 310:1.0 340:1.0 345:1.0 361:1.0 444:1.0 464:1.0 517:1.0 525:1.0 529:1.0 530:1.0 
0.0 4.652824703529526 140:1.0 142:1.0 196:1.0 197:1.0 246:1.0 252:1.0 278:1.0 286:1.0 309:1.0 355:1.0 370:1.0 423:1.0 427:1.0 515:1.0 
27.234423437974915 22.85241779662956 43:1.0 131:1.0 309:1.0 313:1.0 316:1.0 530:1.0 568:1.0 570:1.0 576:1.0 577:1.0 578:1.0 581:1.0 591:1.0 
7.662373497302353 13.951623179844356 61:1.0 87:1.0 93:1.0 95:1.0 131:1.0 187:1.0 192:1.0 278:1.0 283:1.0 290:1.0 291:1.0 309:1.0 
20.609211574149157 21.252011361775487 73:1.0 76:1.0 87:1.0 137:1.0 142:1.0 196:1.0 207:1.0 278:1.0 304:1.0 310:1.0 319:1.0 377:1.0 384:1.0 389:1.0 
19.047362840904327 33.159011639767705 142:1.0 187:1.0 278:1.0 306:1.0 309:1.0 345:1.0 379:1.0 433:1.0 443:1.0 444:1.0 
-0.0 5.776128164306475 110:1.0 131:1.0 150:1.0 249:1.0 291:1.0 297:1.0 300:1.0 303:1.0 344:1.0 392:1.0 395:1.0 444:1.0 455:1.0 457:1.0 511:1.0 514:1.0 543:1.0 545:1.0 552:1.0 553:1.0 
-7.899974319454343 0.0 45:1.0 76:1.0 87:1.0 104:1.0 142:1.0 150:1.0 190:1.0 249:1.0 285:1.0 300:1.0 362:1.0 372:1.0 390:1.0 404:1.0 413:1.0 415:1.0 423:1.0 432:1.0 455:1.0 477:1.0 
-15.276414659821791 3.6374467170074536 2:1.0 77:1.0 87:1.0 88:1.0 207:1.0 241:1.0 253:1.0 298:1.0 309:1.0 377:1.0 419:1.0 450:1.0 465:1.0 504:1.0 505:1.0 507:1.0 534:1.0 542:1.0 544:1.0 560:1.0 
-20.24273767546621 0.0 137:1.0 138:1.0 139:1.0 150:1.0 187:1.0 196:1.0 199:1.0 252:1.0 254:1.0 278:1.0 292:1.0 298:1.0 309:1.0 342:1.0 343:1.0 382:1.0 389:1.0 390:1.0 394:1.0 402:1.0 
-19.661011768139467 5.876035917440919 12:1.0 87:1.0 358:1.0 368:1.0 404:1.0 423:1.0 455:1.0 473:1.0 474:1.0 475:1.0 497:1.0 499:1.0 549:1.0 577:1.0 596:1.0 597:1.0 598:1.0 599:1.0 600:1.0 601:1.0 
-5.856195521977366 0.0 131:1.0 142:1.0 150:1.0 160:1.0 188:1.0 246:1.0 247:1.0 248:1.0 300:1.0 309:1.0 333:1.0 336:1.0 360:1.0 372:1.0 390:1.0 418:1.0 423:1.0 424:1.0 452:1.0 457:1.0 
-3.0099496026959778 14.643756316932565 10:1.0 11:1.0 13:1.0 14:1.0 76:1.0 87:1.0 127:1.0 131:1.0 150:1.0 183:1.0 196:1.0 246:1.0 252:1.0 271:1.0 273:1.0 274:1.0 275:1.0 291:1.0 300:1.0 310:1.0 
-20.903281875717493 15.527999495361081 13:1.0 154:1.0 187:1.0 202:1.0 249:1.0 258:1.0 261:1.0 291:1.0 300:1.0 309:1.0 310:1.0 338:1.0 351:1.0 374:1.0 376:1.0 395:1.0 404:1.0 429:1.0 433:1.0 457:1.0 
-2.34332008571423 13.190833565212005 137:1.0 150:1.0 184:1.0 197:1.0 201:1.0 202:1.0 205:1.0 249:1.0 257:1.0 258:1.0 261:1.0 268:1.0 291:1.0 295:1.0 296:1.0 300:1.0 304:1.0 313:1.0 316:1.0 371:1.0 
-0.0 0.6773341408860264 146:1.0 158:1.0 196:1.0 240:1.0 246:1.0 253:1.0 254:1.0 298:1.0 300:1.0 309:1.0 313:1.0 330:1.0 334:1.0 335:1.0 349:1.0 360:1.0 366:1.0 378:1.0 404:1.0 423:1.0 
-12.092848689930591 16.211973962241338 9:1.0 137:1.0 139:1.0 175:1.0 291:1.0 309:1.0 365:1.0 414:1.0 418:1.0 423:1.0 457:1.0 492:1.0 493:1.0 497:1.0 515:1.0 545:1.0 547:1.0 549:1.0 550:1.0 552:1.0 
-0.0 12.337258851821979 137:1.0 184:1.0 194:1.0 292:1.0 300:1.0 309:1.0 310:1.0 370:1.0 394:1.0 404:1.0 410:1.0 423:1.0 433:1.0 455:1.0 456:1.0 497:1.0 527:1.0 
-11.290443689780224 0.0 1:1.0 10:1.0 79:1.0 127:1.0 142:1.0 150:1.0 251:1.0 300:1.0 309:1.0 310:1.0 404:1.0 449:1.0 
-9.552398965005356 6.158148775484602 87:1.0 153:1.0 170:1.0 182:1.0 197:1.0 202:1.0 249:1.0 254:1.0 270:1.0 300:1.0 310:1.0 364:1.0 389:1.0 418:1.0 492:1.0 
-45.56182576979011 39.4188305920607 10:1.0 47:1.0 79:1.0 127:1.0 131:1.0 137:1.0 170:1.0 180:1.0 
-14.069329124133025 1.0550389979090993 175:1.0 182:1.0 184:1.0 196:1.0 197:1.0 211:1.0 253:1.0 300:1.0 306:1.0 310:1.0 387:1.0 389:1.0 410:1.0 457:1.0 
-0.0 2.7932825914180217 73:1.0 74:1.0 87:1.0 137:1.0 139:1.0 153:1.0 184:1.0 187:1.0 188:1.0 194:1.0 197:1.0 207:1.0 211:1.0 241:1.0 253:1.0 254:1.0 270:1.0 
-0.0 29.064001665403918 2:1.0 76:1.0 137:1.0 139:1.0 156:1.0 196:1.0 199:1.0 207:1.0 253:1.0 291:1.0 292:1.0 360:1.0 390:1.0 404:1.0 418:1.0 450:1.0 455:1.0 
-12.655663371362841 3.657700573750592 59:1.0 196:1.0 252:1.0 276:1.0 292:1.0 300:1.0 309:1.0 334:1.0 360:1.0 449:1.0 457:1.0 545:1.0 547:1.0 556:1.0 577:1.0 585:1.0 587:1.0 590:1.0 591:1.0 
-9.065672668098925 0.0 76:1.0 87:1.0 149:1.0 253:1.0 300:1.0 340:1.0 360:1.0 457:1.0 464:1.0 489:1.0 510:1.0 511:1.0 523:1.0 572:1.0 585:1.0 
-8.694577699399758 0.0 73:1.0 127:1.0 131:1.0 142:1.0 184:1.0 196:1.0 253:1.0 268:1.0 298:1.0 300:1.0 309:1.0 389:1.0 395:1.0 416:1.0 417:1.0 423:1.0 444:1.0 447:1.0 450:1.0 476:1.0 
-9.102730635071655 0.0 137:1.0 187:1.0 298:1.0 300:1.0 309:1.0 310:1.0 360:1.0 370:1.0 395:1.0 423:1.0 441:1.0 457:1.0 543:1.0 545:1.0 552:1.0 577:1.0 585:1.0 
-5.63321192229711 0.0 76:1.0 131:1.0 137:1.0 187:1.0 196:1.0 197:1.0 241:1.0 246:1.0 298:1.0 300:1.0 308:1.0 309:1.0 365:1.0 372:1.0 376:1.0 389:1.0 392:1.0 409:1.0 417:1.0 
-11.542598864033918 0.0 87:1.0 139:1.0 142:1.0 150:1.0 151:1.0 187:1.0 195:1.0 196:1.0 205:1.0 249:1.0 253:1.0 278:1.0 300:1.0 310:1.0 377:1.0 384:1.0 390:1.0 
-15.46084173834918 22.307759553272486 10:1.0 139:1.0 196:1.0 268:1.0 271:1.0 298:1.0 300:1.0 307:1.0 310:1.0 389:1.0 395:1.0 433:1.0 435:1.0 440:1.0 444:1.0 
-11.666460938444848 0.0 137:1.0 195:1.0 201:1.0 207:1.0 249:1.0 268:1.0 276:1.0 300:1.0 306:1.0 307:1.0 309:1.0 330:1.0 345:1.0 371:1.0 390:1.0 394:1.0 404:1.0 
-29.520490730452693 22.02173233117398 196:1.0 246:1.0 300:1.0 379:1.0 410:1.0 418:1.0 515:1.0 536:1.0 570:1.0 591:1.0 594:1.0 
-31.945604667686375 7.798554035914724 87:1.0 131:1.0 137:1.0 158:1.0 187:1.0 196:1.0 199:1.0 219:1.0 240:1.0 246:1.0 252:1.0 270:1.0 273:1.0 274:1.0 286:1.0 
-34.776723689609604 7.814561105098987 77:1.0 87:1.0 131:1.0 137:1.0 148:1.0 196:1.0 249:1.0 253:1.0 273:1.0 278:1.0 290:1.0 294:1.0 298:1.0 306:1.0 309:1.0 360:1.0 370:1.0 379:1.0 392:1.0 
-10.298953388295436 0.0 138:1.0 139:1.0 142:1.0 150:1.0 195:1.0 241:1.0 292:1.0 300:1.0 309:1.0 310:1.0 389:1.0 418:1.0 444:1.0 445:1.0 449:1.0 457:1.0 511:1.0 
-3.723563588017763 0.0 76:1.0 131:1.0 184:1.0 197:1.0 202:1.0 246:1.0 252:1.0 300:1.0 316:1.0 387:1.0 389:1.0 404:1.0 418:1.0 449:1.0 452:1.0 455:1.0 457:1.0 525:1.0 527:1.0 
-4.32022499828431 6.2311735075272745 10:1.0 59:1.0 87:1.0 126:1.0 131:1.0 137:1.0 139:1.0 170:1.0 180:1.0 187:1.0 195:1.0 196:1.0 197:1.0 199:1.0 276:1.0 278:1.0 290:1.0 292:1.0 339:1.0 
-1.619800011544434 0.0 10:1.0 139:1.0 149:1.0 150:1.0 292:1.0 298:1.0 300:1.0 310:1.0 341:1.0 360:1.0 395:1.0 423:1.0 455:1.0 457:1.0 464:1.0 476:1.0 504:1.0 510:1.0 511:1.0 
-0.1278736432739398 3.231255919059612 137:1.0 142:1.0 150:1.0 187:1.0 292:1.0 300:1.0 306:1.0 309:1.0 340:1.0 389:1.0 390:1.0 392:1.0 433:1.0 444:1.0 449:1.0 455:1.0 457:1.0 468:1.0 
-13.13669277626932 19.086740057168885 10:1.0 131:1.0 137:1.0 170:1.0 180:1.0 217:1.0 238:1.0 298:1.0 301:1.0 308:1.0 309:1.0 339:1.0 350:1.0 354:1.0 359:1.0 360:1.0 423:1.0 424:1.0 476:1.0 504:1.0 
-17.684604055868135 24.892193764257062 87:1.0 137:1.0 291:1.0 297:1.0 414:1.0 452:1.0 457:1.0 510:1.0 511:1.0 545:1.0 547:1.0 549:1.0 550:1.0 556:1.0 558:1.0 570:1.0 
-0.0 3.643140170409203 87:1.0 89:1.0 127:1.0 141:1.0 142:1.0 170:1.0 187:1.0 249:1.0 258:1.0 291:1.0 298:1.0 300:1.0 360:1.0 392:1.0 395:1.0 404:1.0 418:1.0 423:1.0 433:1.0 
-20.571289042748287 0.0 131:1.0 139:1.0 142:1.0 152:1.0 278:1.0 300:1.0 309:1.0 310:1.0 372:1.0 392:1.0 444:1.0 457:1.0 514:1.0 552:1.0 556:1.0 570:1.0 
-6.47932522392817 0.0 9:1.0 26:1.0 184:1.0 202:1.0 249:1.0 258:1.0 300:1.0 390:1.0 464:1.0 489:1.0 537:1.0 540:1.0 543:1.0 547:1.0 552:1.0 556:1.0 558:1.0 
-1.0942802180181233 0.0 79:1.0 87:1.0 110:1.0 131:1.0 139:1.0 149:1.0 150:1.0 187:1.0 196:1.0 246:1.0 278:1.0 300:1.0 360:1.0 
-0.0 4.79629236959377 138:1.0 184:1.0 287:1.0 298:1.0 300:1.0 379:1.0 418:1.0 436:1.0 444:1.0 452:1.0 457:1.0 515:1.0 545:1.0 552:1.0 577:1.0 585:1.0 590:1.0 
-15.987148234191043 0.8200376623520366 75:1.0 131:1.0 142:1.0 258:1.0 267:1.0 290:1.0 300:1.0 309:1.0 348:1.0 382:1.0 
-0.775465081453627 0.0 47:1.0 87:1.0 137:1.0 139:1.0 149:1.0 182:1.0 300:1.0 309:1.0 345:1.0 377:1.0 417:1.0 423:1.0 449:1.0 452:1.0 457:1.0 
-23.48035941835361 0.0 87:1.0 131:1.0 137:1.0 139:1.0 196:1.0 298:1.0 300:1.0 313:1.0 316:1.0 360:1.0 377:1.0 423:1.0 444:1.0 457:1.0 489:1.0 
-0.0 3.1429992127342277 10:1.0 11:1.0 12:1.0 13:1.0 87:1.0 89:1.0 127:1.0 131:1.0 150:1.0 252:1.0 291:1.0 292:1.0 300:1.0 339:1.0 399:1.0 404:1.0 455:1.0 
-66.43693531468058 18.517834943092318 43:1.0 87:1.0 110:1.0 116:1.0 142:1.0 150:1.0 187:1.0 194:1.0 204:1.0 239:1.0 246:1.0 253:1.0 278:1.0 
-0.0 26.600719387551884 74:1.0 142:1.0 187:1.0 197:1.0 202:1.0 252:1.0 253:1.0 300:1.0 307:1.0 313:1.0 340:1.0 360:1.0 370:1.0 389:1.0 390:1.0 
-4.290376797654016 -5.672099818172467 72:1.0 87:1.0 266:1.0 277:1.0 280:1.0 281:1.0 291:1.0 307:1.0 309:1.0 324:1.0 436:1.0 458:1.0 459:1.0 486:1.0 545:1.0 557:1.0 570:1.0 576:1.0 583:1.0 586:1.0 
-0.3663637601973753 -0.0 44:1.0 196:1.0 236:1.0 243:1.0 250:1.0 290:1.0 291:1.0 313:1.0 330:1.0 382:1.0 388:1.0 417:1.0 433:1.0 436:1.0 440:1.0 444:1.0 461:1.0 476:1.0 578:1.0 579:1.0 
-0.0 -2.5485415623535084 10:1.0 52:1.0 53:1.0 66:1.0 121:1.0 122:1.0 161:1.0 162:1.0 172:1.0 173:1.0 196:1.0 266:1.0 271:1.0 291:1.0 307:1.0 389:1.0 404:1.0 436:1.0 455:1.0 457:1.0 
-3.9049903099134418 -0.9075229558301581 46:1.0 102:1.0 127:1.0 142:1.0 150:1.0 158:1.0 189:1.0 202:1.0 206:1.0 207:1.0 284:1.0 291:1.0 311:1.0 317:1.0 325:1.0 326:1.0 372:1.0 389:1.0 410:1.0 423:1.0 
-0.7464915329824062 -3.5471533543211855 46:1.0 86:1.0 92:1.0 228:1.0 229:1.0 245:1.0 291:1.0 433:1.0 436:1.0 440:1.0 444:1.0 457:1.0 476:1.0 513:1.0 523:1.0 545:1.0 548:1.0 577:1.0 589:1.0 590:1.0 
-15.29782132493312 -18.349826938199488 196:1.0 246:1.0 270:1.0 271:1.0 290:1.0 329:1.0 340:1.0 389:1.0 401:1.0 433:1.0 435:1.0 439:1.0 455:1.0 462:1.0 467:1.0 482:1.0 483:1.0 495:1.0 496:1.0 504:1.0 
-4.569810592499735 -3.5221806577191312 46:1.0 54:1.0 79:1.0 103:1.0 105:1.0 121:1.0 144:1.0 150:1.0 196:1.0 222:1.0 230:1.0 270:1.0 291:1.0 292:1.0 310:1.0 345:1.0 370:1.0 389:1.0 392:1.0 433:1.0 
-7.4133694874785006 -0.0 39:1.0 46:1.0 76:1.0 207:1.0 239:1.0 246:1.0 278:1.0 291:1.0 388:1.0 389:1.0 392:1.0 433:1.0 436:1.0 443:1.0 489:1.0 509:1.0 514:1.0 515:1.0 539:1.0 540:1.0 
-6.927559203146452 -6.4103973720138585 46:1.0 137:1.0 196:1.0 256:1.0 291:1.0 310:1.0 389:1.0 436:1.0 457:1.0 511:1.0 536:1.0 548:1.0 566:1.0 572:1.0 577:1.0 585:1.0 592:1.0 593:1.0 594:1.0 595:1.0 
-8.316754886899927 -0.0 121:1.0 150:1.0 196:1.0 200:1.0 202:1.0 220:1.0 223:1.0 291:1.0 309:1.0 310:1.0 328:1.0 330:1.0 348:1.0 349:1.0 370:1.0 389:1.0 425:1.0 431:1.0 433:1.0 435:1.0 
-0.5911855892051175 -0.0 29:1.0 30:1.0 31:1.0 73:1.0 110:1.0 139:1.0 147:1.0 196:1.0 197:1.0 236:1.0 265:1.0 272:1.0 291:1.0 310:1.0 318:1.0 325:1.0 397:1.0 410:1.0 433:1.0 436:1.0 
-18.931041427440164 -27.798954577610793 87:1.0 127:1.0 187:1.0 194:1.0 197:1.0 291:1.0 360:1.0 390:1.0 423:1.0 436:1.0 492:1.0 515:1.0 527:1.0 545:1.0 552:1.0 568:1.0 570:1.0 583:1.0 
-11.093768889407427 -4.133874315402849 103:1.0 150:1.0 187:1.0 291:1.0 309:1.0 370:1.0 392:1.0 409:1.0 433:1.0 436:1.0 439:1.0 444:1.0 455:1.0 471:1.0 480:1.0 534:1.0 
-5.880718011790441 -18.520555521193025 246:1.0 253:1.0 278:1.0 291:1.0 360:1.0 370:1.0 416:1.0 418:1.0 423:1.0 436:1.0 444:1.0 456:1.0 467:1.0 536:1.0 545:1.0 
-32.33615308969601 -0.9861853892056005 142:1.0 196:1.0 291:1.0 306:1.0 309:1.0 370:1.0 387:1.0 436:1.0 464:1.0 570:1.0 576:1.0 577:1.0 578:1.0 
-10.56958376786974 -5.437339815117343 87:1.0 142:1.0 144:1.0 192:1.0 241:1.0 268:1.0 290:1.0 291:1.0 307:1.0 309:1.0 313:1.0 360:1.0 392:1.0 402:1.0 417:1.0 423:1.0 436:1.0 
-27.89393465806331 -15.577206217660258 131:1.0 196:1.0 197:1.0 246:1.0 267:1.0 278:1.0 283:1.0 291:1.0 313:1.0 360:1.0 379:1.0 385:1.0 389:1.0 419:1.0 420:1.0 
-4.316737080664001 -5.425088529621955 196:1.0 197:1.0 246:1.0 252:1.0 268:1.0 270:1.0 291:1.0 433:1.0 436:1.0 448:1.0 457:1.0 460:1.0 526:1.0 543:1.0 577:1.0 583:1.0 585:1.0 591:1.0 
-10.735394787994894 -3.9494966513272973 57:1.0 73:1.0 121:1.0 182:1.0 187:1.0 194:1.0 196:1.0 202:1.0 273:1.0 274:1.0 291:1.0 309:1.0 310:1.0 385:1.0 389:1.0 410:1.0 
-34.397174457636886 -24.772079934626593 87:1.0 246:1.0 271:1.0 286:1.0 288:1.0 291:1.0 306:1.0 310:1.0 313:1.0 394:1.0 409:1.0 433:1.0 
-0.0 -5.247450795275447 171:1.0 194:1.0 258:1.0 291:1.0 305:1.0 354:1.0 370:1.0 372:1.0 385:1.0 392:1.0 423:1.0 436:1.0 444:1.0 455:1.0 457:1.0 464:1.0 467:1.0 
-43.74360232042549 -27.592834499374128 10:1.0 30:1.0 127:1.0 129:1.0 142:1.0 200:1.0 207:1.0 291:1.0 309:1.0 311:1.0 
-6.762987666232788 -14.512716538091453 137:1.0 139:1.0 150:1.0 265:1.0 291:1.0 315:1.0 360:1.0 376:1.0 385:1.0 409:1.0 436:1.0 456:1.0 457:1.0 462:1.0 527:1.0 545:1.0 547:1.0 572:1.0 577:1.0 
-0.0 -12.86834914400245 87:1.0 131:1.0 137:1.0 182:1.0 196:1.0 199:1.0 202:1.0 207:1.0 291:1.0 292:1.0 307:1.0 392:1.0 423:1.0 433:1.0 436:1.0 457:1.0 536:1.0 545:1.0 572:1.0 
-0.0 -17.514152529534933 10:1.0 29:1.0 30:1.0 127:1.0 137:1.0 202:1.0 207:1.0 236:1.0 291:1.0 313:1.0 340:1.0 
-24.025827468841072 -44.504048166591986 10:1.0 73:1.0 137:1.0 170:1.0 180:1.0 196:1.0 202:1.0 237:1.0 238:1.0 291:1.0 292:1.0 301:1.0 308:1.0 339:1.0 
-1.5817084173096536 -0.0 73:1.0 192:1.0 196:1.0 236:1.0 252:1.0 258:1.0 271:1.0 291:1.0 316:1.0 360:1.0 376:1.0 423:1.0 433:1.0 436:1.0 439:1.0 440:1.0 444:1.0 462:1.0 467:1.0 
-2.0772984859863923 -0.0 246:1.0 248:1.0 249:1.0 291:1.0 309:1.0 310:1.0 325:1.0 370:1.0 433:1.0 436:1.0 444:1.0 453:1.0 455:1.0 467:1.0 469:1.0 471:1.0 487:1.0 
-11.248205461190555 -13.269768029081705 10:1.0 73:1.0 137:1.0 158:1.0 189:1.0 196:1.0 202:1.0 250:1.0 270:1.0 290:1.0 291:1.0 307:1.0 346:1.0 379:1.0 389:1.0 404:1.0 
-6.056180890623864 -7.4082272943734555 57:1.0 121:1.0 127:1.0 128:1.0 196:1.0 255:1.0 291:1.0 302:1.0 310:1.0 313:1.0 325:1.0 370:1.0 388:1.0 
-0.49309251735979515 -15.674907215834162 10:1.0 137:1.0 189:1.0 196:1.0 202:1.0 207:1.0 259:1.0 263:1.0 291:1.0 309:1.0 310:1.0 389:1.0 404:1.0 410:1.0 433:1.0 
-13.817117396376068 -6.075726796929939 131:1.0 142:1.0 267:1.0 268:1.0 278:1.0 291:1.0 299:1.0 313:1.0 319:1.0 340:1.0 410:1.0 436:1.0 444:1.0 467:1.0 488:1.0 523:1.0 561:1.0 
-0.0 -1.289882132338733 79:1.0 150:1.0 288:1.0 291:1.0 305:1.0 310:1.0 370:1.0 389:1.0 433:1.0 436:1.0 454:1.0 462:1.0 469:1.0 471:1.0 476:1.0 
-5.717901459367646 -0.0 150:1.0 196:1.0 207:1.0 242:1.0 246:1.0 249:1.0 291:1.0 309:1.0 370:1.0 392:1.0 416:1.0 421:1.0 423:1.0 433:1.0 436:1.0 440:1.0 469:1.0 
-39.74561292578295 -19.611341948646032 121:1.0 187:1.0 248:1.0 249:1.0 263:1.0 276:1.0 278:1.0 291:1.0 309:1.0 360:1.0 370:1.0 389:1.0 392:1.0 428:1.0 431:1.0 
-12.316563286886991 -0.0 187:1.0 196:1.0 291:1.0 330:1.0 360:1.0 370:1.0 423:1.0 436:1.0 444:1.0 464:1.0 467:1.0 513:1.0 567:1.0 
-0.0 -7.802855645993287 142:1.0 196:1.0 271:1.0 291:1.0 310:1.0 313:1.0 381:1.0 390:1.0 433:1.0 436:1.0 440:1.0 455:1.0 515:1.0 543:1.0 546:1.0 547:1.0 552:1.0 
-5.508516883720316 -0.0 196:1.0 246:1.0 266:1.0 271:1.0 290:1.0 291:1.0 309:1.0 356:1.0 370:1.0 416:1.0 423:1.0 433:1.0 436:1.0 450:1.0 458:1.0 
-2.1042103506559324 -0.0 87:1.0 291:1.0 306:1.0 309:1.0 370:1.0 389:1.0 416:1.0 423:1.0 433:1.0 436:1.0 444:1.0 464:1.0 487:1.0 545:1.0 570:1.0 
-13.13956337469171 -0.0 158:1.0 202:1.0 260:1.0 263:1.0 291:1.0 307:1.0 309:1.0 313:1.0 337:1.0 360:1.0 392:1.0 409:1.0 423:1.0 
-11.71037042855607 -0.0 87:1.0 131:1.0 142:1.0 196:1.0 202:1.0 246:1.0 291:1.0 310:1.0 340:1.0 394:1.0 423:1.0 433:1.0 436:1.0 444:1.0 470:1.0 
